<?xml version="1.0"?>
<opencv_storage>
<!-- Created using Computer Vision System Toolbox(tm) for MATLAB(R) -->
<!-- Version 9.0.0.341360 (R2016a) -->
<!-- Compatible with OpenCV 2.4 -->
<cascade>
  <stageType>BOOST</stageType>
  <featureType>LBP</featureType>
  <height>36</height>
  <width>36</width>
  <stageParams>
    <boostType>GAB</boostType>
    <minHitRate>9.9800002574920654e-01</minHitRate>
    <maxFalseAlarm>3.0000001192092896e-01</maxFalseAlarm>
    <weightTrimRate>9.4999999999999996e-01</weightTrimRate>
    <maxDepth>1</maxDepth>
    <maxWeakCount>100</maxWeakCount></stageParams>
  <featureParams>
    <maxCatCount>256</maxCatCount>
    <featSize>1</featSize></featureParams>
  <stageNum>11</stageNum>
  <stages>
    <!-- stage 0 -->
    <_>
      <maxWeakCount>5</maxWeakCount>
      <stageThreshold>-1.0551713705062866e+00</stageThreshold>
      <weakClassifiers>
        <_>
          <internalNodes>
            0 -1 13 -20481 -2120745 -71234885 -56641 -38818885 -2159733
            -68476229 -64513</internalNodes>
          <leafValues>
            -8.5014003515243530e-01 8.4072023630142212e-01</leafValues></_>
        <_>
          <internalNodes>
            0 -1 21 -2097153 -272644385 -763388417 261081491 -16007185
            -544488549 -1113605233 188743615</internalNodes>
          <leafValues>
            -8.4373313188552856e-01 7.1657395362854004e-01</leafValues></_>
        <_>
          <internalNodes>
            0 -1 68 -993730562 -723725578 -228339205 -35655169
            -128386114 -741348706 -73400321 -1</internalNodes>
          <leafValues>
            -8.4053099155426025e-01 6.7500972747802734e-01</leafValues></_>
        <_>
          <internalNodes>
            0 -1 96 -1 -786433 -65 -8388617 -81 -1073872897 -1929388571
            -50336396</internalNodes>
          <leafValues>
            -6.5290153026580811e-01 7.7626168727874756e-01</leafValues></_>
        <_>
          <internalNodes>
            0 -1 5 -453843210 -2359585 1088789983 -69225505 -239864080
            -5535489 -36973577 -9217</internalNodes>
          <leafValues>
            -8.0951559543609619e-01 6.1659359931945801e-01</leafValues></_></weakClassifiers></_>
    <!-- stage 1 -->
    <_>
      <maxWeakCount>7</maxWeakCount>
      <stageThreshold>-1.1009198427200317e+00</stageThreshold>
      <weakClassifiers>
        <_>
          <internalNodes>
            0 -1 46 1342132223 -2097153 -571736065 -1025 1335840511
            2080072187 -7340033 -1049889</internalNodes>
          <leafValues>
            -8.0874454975128174e-01 6.7226356267929077e-01</leafValues></_>
        <_>
          <internalNodes>
            0 -1 20 -34607121 -8654866 -203438130 -270031218 -8388625
            -29217 -33575254 -21846</internalNodes>
          <leafValues>
            -7.0405107736587524e-01 6.5567207336425781e-01</leafValues></_>
        <_>
          <internalNodes>
            0 -1 10 -83886234 -254755082 -604515073 -3169 -39323804
            -263129743 -787977 -1025</internalNodes>
          <leafValues>
            -7.4153912067413330e-01 5.6049054861068726e-01</leafValues></_>
        <_>
          <internalNodes>
            0 -1 83 -538968065 -4720641 -45875209 -84654 -2098697
            -2372395 -136349964 -1706635</internalNodes>
          <leafValues>
            -6.2138670682907104e-01 6.4261037111282349e-01</leafValues></_>
        <_>
          <internalNodes>
            0 -1 31 -180355165 151967023 -782901985 -543432737
            -1514604293 262979994 -343147525 -1140850721</internalNodes>
          <leafValues>
            -5.9874159097671509e-01 6.0309416055679321e-01</leafValues></_>
        <_>
          <internalNodes>
            0 -1 89 -1146241103 -1076112481 -2084506881 -1377847345
            -1141135425 -554970577 1002946303 -1074792449</internalNodes>
          <leafValues>
            -6.1922371387481689e-01 5.6387448310852051e-01</leafValues></_>
        <_>
          <internalNodes>
            0 -1 49 -19136513 1065350079 950390783 -119547413 1078326525
            -1195548195 -2012874531 -1065034266</internalNodes>
          <leafValues>
            -6.0539692640304565e-01 5.4567164182662964e-01</leafValues></_></weakClassifiers></_>
    <!-- stage 2 -->
    <_>
      <maxWeakCount>6</maxWeakCount>
      <stageThreshold>-1.4708850383758545e+00</stageThreshold>
      <weakClassifiers>
        <_>
          <internalNodes>
            0 -1 22 -65 590348095 -67895811 -8197 -8650753 1073741311
            -2360325 -1</internalNodes>
          <leafValues>
            -6.9906103610992432e-01 6.8365472555160522e-01</leafValues></_>
        <_>
          <internalNodes>
            0 -1 95 -1 -513 -603979777 -17040385 -2359433 -1025 -262283
            -16973964</internalNodes>
          <leafValues>
            -6.8814837932586670e-01 6.4350062608718872e-01</leafValues></_>
        <_>
          <internalNodes>
            0 -1 62 -169 -8421509 -1 -4227273 -1 -1 -1 -43691</internalNodes>
          <leafValues>
            -6.2733530998229980e-01 6.7117154598236084e-01</leafValues></_>
        <_>
          <internalNodes>
            0 -1 12 -136843521 -304623749 -176281347 -1344295239
            -27034627 -35598339 -3332289 -53265</internalNodes>
          <leafValues>
            -6.9211220741271973e-01 5.0532066822052002e-01</leafValues></_>
        <_>
          <internalNodes>
            0 -1 101 -268435465 -337117733 -82390113 -25231883 -69337091
            -138257 -3149899 -16973852</internalNodes>
          <leafValues>
            -5.8945220708847046e-01 5.7357233762741089e-01</leafValues></_>
        <_>
          <internalNodes>
            0 -1 65 -17314315 2145324087 -1210339489 209398828 -79016361
            -27534617 -39108625 183437951</internalNodes>
          <leafValues>
            -6.3630735874176025e-01 5.1628673076629639e-01</leafValues></_></weakClassifiers></_>
    <!-- stage 3 -->
    <_>
      <maxWeakCount>8</maxWeakCount>
      <stageThreshold>-1.4636563062667847e+00</stageThreshold>
      <weakClassifiers>
        <_>
          <internalNodes>
            0 -1 33 -85987617 -16790817 -210247081 -218106125 -92280081
            -67636553 -5425 -352325938</internalNodes>
          <leafValues>
            -6.4823883771896362e-01 6.4194965362548828e-01</leafValues></_>
        <_>
          <internalNodes>
            0 -1 2 1341509631 -787973 -279908353 -170269187 1274613631
            -407333 -6758401 -4654087</internalNodes>
          <leafValues>
            -6.3658714294433594e-01 5.9108424186706543e-01</leafValues></_>
        <_>
          <internalNodes>
            0 -1 99 -268959745 -822083585 -3932713 -286363137 -1161
            -84934913 -9355 -197259</internalNodes>
          <leafValues>
            -6.5441399812698364e-01 5.0153428316116333e-01</leafValues></_>
        <_>
          <internalNodes>
            0 -1 57 -285741057 -134234113 -16781313 2147467263
            1608992639 -16818177 -12289 -1</internalNodes>
          <leafValues>
            -5.4003465175628662e-01 5.9205275774002075e-01</leafValues></_>
        <_>
          <internalNodes>
            0 -1 75 -1355235851 -1074225739 -604774913 -2247331
            -1082597379 -1074426369 -1145422851 -1359471131</internalNodes>
          <leafValues>
            -6.3316208124160767e-01 5.0802868604660034e-01</leafValues></_>
        <_>
          <internalNodes>
            0 -1 7 -2101313 -2107969 -287519606 1090505758 -607147179
            -1904849 -84178313 -251664641</internalNodes>
          <leafValues>
            -5.7954347133636475e-01 5.4796582460403442e-01</leafValues></_>
        <_>
          <internalNodes>
            0 -1 41 -33555457 -641748561 -143141125 27508782 -1994396417
            -1473630547 -239076881 -2138779765</internalNodes>
          <leafValues>
            -5.6935966014862061e-01 5.4847323894500732e-01</leafValues></_>
        <_>
          <internalNodes>
            0 -1 36 -1573470 -812733489 1036017184 -284974175 -101975625
            -425984433 -208143577 -533</internalNodes>
          <leafValues>
            -5.8759355545043945e-01 5.2440536022186279e-01</leafValues></_></weakClassifiers></_>
    <!-- stage 4 -->
    <_>
      <maxWeakCount>9</maxWeakCount>
      <stageThreshold>-1.0789431333541870e+00</stageThreshold>
      <weakClassifiers>
        <_>
          <internalNodes>
            0 -1 29 -17 -243796497 -482285586 -71841042 -117706257
            -76546113 -67908914 -5169</internalNodes>
          <leafValues>
            -6.3614338636398315e-01 5.8511584997177124e-01</leafValues></_>
        <_>
          <internalNodes>
            0 -1 102 -268435457 -65 -3 -131081 -1887444993 -65
            -805316617 -33565195</internalNodes>
          <leafValues>
            -4.9177494645118713e-01 6.4494574069976807e-01</leafValues></_>
        <_>
          <internalNodes>
            0 -1 54 -926351378 -103746721 -216278765 -12632037
            -1866399746 -552078629 -69469205 -4161</internalNodes>
          <leafValues>
            -7.5982666015625000e-01 4.3149429559707642e-01</leafValues></_>
        <_>
          <internalNodes>
            0 -1 58 -8705 -67636739 -2095625807 1031750623 -1928345131
            -629208419 8685576 134860169</internalNodes>
          <leafValues>
            -6.2472784519195557e-01 5.0018137693405151e-01</leafValues></_>
        <_>
          <internalNodes>
            0 -1 48 -266462 -470906582 -153227392 -69220438 -499812489
            -284448596 -206999119 -2053</internalNodes>
          <leafValues>
            -5.9544914960861206e-01 4.7045135498046875e-01</leafValues></_>
        <_>
          <internalNodes>
            0 -1 87 -67314179 -235646755 -233450753 -4439635 -1078013251
            -37498194 -70320417 -1430614278</internalNodes>
          <leafValues>
            -5.5735969543457031e-01 4.7819587588310242e-01</leafValues></_>
        <_>
          <internalNodes>
            0 -1 79 -8388749 -4194397 -202113357 -786507 -8388745
            -11010177 -134220313 -167782921</internalNodes>
          <leafValues>
            -4.7583717107772827e-01 5.4673200845718384e-01</leafValues></_>
        <_>
          <internalNodes>
            0 -1 37 -499397961 -138497419 -1566405141 68094175 -69212195
            2141873125 -611587329 182413871</internalNodes>
          <leafValues>
            -5.7976835966110229e-01 4.7621309757232666e-01</leafValues></_>
        <_>
          <internalNodes>
            0 -1 38 -67113017 -4854701 -1055923941 -577241401
            -1517296761 -217389681 -166860067 -1060977045</internalNodes>
          <leafValues>
            -5.4432088136672974e-01 4.9749296903610229e-01</leafValues></_></weakClassifiers></_>
    <!-- stage 5 -->
    <_>
      <maxWeakCount>11</maxWeakCount>
      <stageThreshold>-1.1530659198760986e+00</stageThreshold>
      <weakClassifiers>
        <_>
          <internalNodes>
            0 -1 18 -136991233 -179196555 -716070817 -3036451 -40321025
            -13583891 -1210469377 -19489</internalNodes>
          <leafValues>
            -5.9537571668624878e-01 5.5376344919204712e-01</leafValues></_>
        <_>
          <internalNodes>
            0 -1 34 -67109893 -19858352 -103874540 -45059568 -68193921
            -880050109 -777306029 -536882361</internalNodes>
          <leafValues>
            -5.5015373229980469e-01 5.2643376588821411e-01</leafValues></_>
        <_>
          <internalNodes>
            0 -1 30 624895999 796905849 -1385468545 -2242091 2139323391
            -58013045 -17114977 -538314611</internalNodes>
          <leafValues>
            -6.3827353715896606e-01 4.0050625801086426e-01</leafValues></_>
        <_>
          <internalNodes>
            0 -1 6 -538968065 -150997121 1998055074 1614346946
            -101451913 -546612357 -86115483 -245899401</internalNodes>
          <leafValues>
            -5.5713295936584473e-01 4.5348033308982849e-01</leafValues></_>
        <_>
          <internalNodes>
            0 -1 71 -1750007809 -8454187 -137 -8651276 1027162071 -65545
            -172033 -268479120</internalNodes>
          <leafValues>
            -5.0083065032958984e-01 5.2275025844573975e-01</leafValues></_>
        <_>
          <internalNodes>
            0 -1 91 -4720641 -6759 -250359305 -12845 -1077939463
            -1348752837 465565685 -302255116</internalNodes>
          <leafValues>
            -5.2964931726455688e-01 5.0388455390930176e-01</leafValues></_>
        <_>
          <internalNodes>
            0 -1 74 2104628 -1109444079 1368233983 -1113646209
            -1177766483 -72686421 -477476098 -1409667330</internalNodes>
          <leafValues>
            -5.4301315546035767e-01 4.7356382012367249e-01</leafValues></_>
        <_>
          <internalNodes>
            0 -1 56 -524963 2135691531 -181378432 1533247835 -262080972
            -535818096 -130749802 -52108370</internalNodes>
          <leafValues>
            -5.5109030008316040e-01 4.5908701419830322e-01</leafValues></_>
        <_>
          <internalNodes>
            0 -1 4 -154338313 -761340974 -620626472 -86576910 2005644283
            -1227828809 -67373102 -136841225</internalNodes>
          <leafValues>
            -5.8832454681396484e-01 4.0305492281913757e-01</leafValues></_>
        <_>
          <internalNodes>
            0 -1 43 -873470718 260265346 -581831694 -71066878 -504825033
            113320240 -125306064 -136315226</internalNodes>
          <leafValues>
            -6.4464813470840454e-01 3.9484900236129761e-01</leafValues></_>
        <_>
          <internalNodes>
            0 -1 64 -14372452 1947211292 -1824009799 2144994065 -3624993
            -71641717 -1430205542 -1077963813</internalNodes>
          <leafValues>
            -5.0848281383514404e-01 4.7452455759048462e-01</leafValues></_></weakClassifiers></_>
    <!-- stage 6 -->
    <_>
      <maxWeakCount>11</maxWeakCount>
      <stageThreshold>-1.2732187509536743e+00</stageThreshold>
      <weakClassifiers>
        <_>
          <internalNodes>
            0 -1 53 -4105 -4313 -8193 -37077 -8193 -8193 -1 -35037</internalNodes>
          <leafValues>
            -5.1443850994110107e-01 6.1025118827819824e-01</leafValues></_>
        <_>
          <internalNodes>
            0 -1 60 -118483468 -34078691 -245752323 -201583909
            -102696196 -108230579 -82248785 -1146615368</internalNodes>
          <leafValues>
            -5.1363337039947510e-01 5.1802480220794678e-01</leafValues></_>
        <_>
          <internalNodes>
            0 -1 35 -1054814 -808456286 1393819395 -140333 -217138945
            -343179125 -744752145 -1316129</internalNodes>
          <leafValues>
            -5.5564874410629272e-01 4.7766041755676270e-01</leafValues></_>
        <_>
          <internalNodes>
            0 -1 88 -1212958789 -1650460193 -1257385477 -1080557601
            -1648934993 -639642740 -1476412481 -1073741825</internalNodes>
          <leafValues>
            -6.2502962350845337e-01 4.2402976751327515e-01</leafValues></_>
        <_>
          <internalNodes>
            0 -1 3 -65 -33554569 -1427837362 544991459 -25165985 -161
            -152572081 -192940865</internalNodes>
          <leafValues>
            -4.6194106340408325e-01 5.2747100591659546e-01</leafValues></_>
        <_>
          <internalNodes>
            0 -1 97 -1049609 -507383534 -2097085429 -439684469
            -407967007 -620314621 -758127831 -17109659</internalNodes>
          <leafValues>
            -5.3307479619979858e-01 4.1654676198959351e-01</leafValues></_>
        <_>
          <internalNodes>
            0 -1 70 1040235472 -31973680 -712502817 -576957988 941267189
            -1358264168 998861823 -1879309964</internalNodes>
          <leafValues>
            -5.2947330474853516e-01 4.5322686433792114e-01</leafValues></_>
        <_>
          <internalNodes>
            0 -1 39 -84426553 -236664823 268550169 -728448166 -212350802
            -632157565 -393500053 -86848882</internalNodes>
          <leafValues>
            -5.4435616731643677e-01 4.3689283728599548e-01</leafValues></_>
        <_>
          <internalNodes>
            0 -1 1 -271061009 -305793071 -7210545 -10366636 268074791
            402520315 -3548161 -538249016</internalNodes>
          <leafValues>
            -6.1917793750762939e-01 3.6545494198799133e-01</leafValues></_>
        <_>
          <internalNodes>
            0 -1 45 1608343551 2040214459 -341607873 2065398579
            1892090090 2039159183 -309650709 488328123</internalNodes>
          <leafValues>
            -7.2571110725402832e-01 3.0564051866531372e-01</leafValues></_>
        <_>
          <internalNodes>
            0 -1 85 -882968593 -3993442 -1072639799 -86843358 -95755710
            -1685485565 -1159013888 -91030620</internalNodes>
          <leafValues>
            -5.8224689960479736e-01 3.7922570109367371e-01</leafValues></_></weakClassifiers></_>
    <!-- stage 7 -->
    <_>
      <maxWeakCount>12</maxWeakCount>
      <stageThreshold>-1.5815762281417847e+00</stageThreshold>
      <weakClassifiers>
        <_>
          <internalNodes>
            0 -1 28 -16777473 -1 -33554433 -117440577 -65537 -513 -1297
            -83890481</internalNodes>
          <leafValues>
            -4.9603524804115295e-01 5.5250245332717896e-01</leafValues></_>
        <_>
          <internalNodes>
            0 -1 9 -237686785 -175027755 -1324339201 -6967463 -107995137
            -86980391 -206554113 -38735887</internalNodes>
          <leafValues>
            -5.7821375131607056e-01 4.1249790787696838e-01</leafValues></_>
        <_>
          <internalNodes>
            0 -1 78 -50372865 -16810497 -1 -96534529 -1661111043
            -33554561 -327232067 -17629185</internalNodes>
          <leafValues>
            -4.3411141633987427e-01 5.2276831865310669e-01</leafValues></_>
        <_>
          <internalNodes>
            0 -1 81 -1474291528 -587723724 -111611395 -1655168548
            -1108164867 -1162180366 -1081110593 -1970794693</internalNodes>
          <leafValues>
            -5.0445479154586792e-01 4.2541185021400452e-01</leafValues></_>
        <_>
          <internalNodes>
            0 -1 26 -813170785 -954082348 -2130587137 665055693
            1761861963 -76180871 -635175637 254803727</internalNodes>
          <leafValues>
            -5.1660579442977905e-01 4.2776557803153992e-01</leafValues></_>
        <_>
          <internalNodes>
            0 -1 100 -2097179 -493099273 -803893201 -338896404 -68584475
            -677653429 -91229187 -539174411</internalNodes>
          <leafValues>
            -6.3247245550155640e-01 3.0954170227050781e-01</leafValues></_>
        <_>
          <internalNodes>
            0 -1 51 -580911375 469351931 -268500993 532414383 -4197448
            -1112587847 230263964 -1983937365</internalNodes>
          <leafValues>
            -4.0021264553070068e-01 5.3489238023757935e-01</leafValues></_>
        <_>
          <internalNodes>
            0 -1 25 -75554042 -806449940 -577521404 -556625 -775691612
            1237027262 -339494076 -539115521</internalNodes>
          <leafValues>
            -5.7971435785293579e-01 3.6630502343177795e-01</leafValues></_>
        <_>
          <internalNodes>
            0 -1 80 -44499748 -33671523 2123963327 -572722247 -68502792
            -12905582 -1180124280 178784891</internalNodes>
          <leafValues>
            -5.6191408634185791e-01 3.3915489912033081e-01</leafValues></_>
        <_>
          <internalNodes>
            0 -1 32 -673711070 -648683748 491125450 -1828325665
            1094766640 -1710635749 -787103696 301461746</internalNodes>
          <leafValues>
            -6.6033196449279785e-01 3.1944385170936584e-01</leafValues></_>
        <_>
          <internalNodes>
            0 -1 94 -1693453451 2124264159 1426665951 -20524565
            -385359293 -72646645 -103851915 -1192428683</internalNodes>
          <leafValues>
            -7.0011329650878906e-01 2.7993220090866089e-01</leafValues></_>
        <_>
          <internalNodes>
            0 -1 67 -1533800708 -203685683 1359081727 -77725367
            -1296387331 -645551959 -1244808721 -1146477889</internalNodes>
          <leafValues>
            -4.6083840727806091e-01 4.4291517138481140e-01</leafValues></_></weakClassifiers></_>
    <!-- stage 8 -->
    <_>
      <maxWeakCount>13</maxWeakCount>
      <stageThreshold>-1.8373719453811646e+00</stageThreshold>
      <weakClassifiers>
        <_>
          <internalNodes>
            0 -1 42 -25169953 -4198401 -1342194177 -67113041 -151007249
            -50336065 -17825905 -354447793</internalNodes>
          <leafValues>
            -4.2786681652069092e-01 5.5519998073577881e-01</leafValues></_>
        <_>
          <internalNodes>
            0 -1 83 -1 -790721 -524289 -69 -18874369 -8523809 -151132169
            -2102025</internalNodes>
          <leafValues>
            -3.9519968628883362e-01 5.3989613056182861e-01</leafValues></_>
        <_>
          <internalNodes>
            0 -1 86 -1230498595 -754177 -257 -1178722305 -16974660
            -524417 -17240129 -1413857281</internalNodes>
          <leafValues>
            -4.5191922783851624e-01 4.8531520366668701e-01</leafValues></_>
        <_>
          <internalNodes>
            0 -1 0 -253558802 -83949217 -305463937 -87319541 -193921164
            -253034021 -5898241 -539957</internalNodes>
          <leafValues>
            -6.1017560958862305e-01 3.4052070975303650e-01</leafValues></_>
        <_>
          <internalNodes>
            0 -1 47 -407908574 -443854390 -41683440 -2105906 -78775321
            -1735174002 -15993134 -265282</internalNodes>
          <leafValues>
            -5.4392075538635254e-01 3.5307335853576660e-01</leafValues></_>
        <_>
          <internalNodes>
            0 -1 61 135923760 -2219659 218282491 1062208973 -1701791248
            -14539522 462442427 705177912</internalNodes>
          <leafValues>
            -6.1216139793395996e-01 3.1171450018882751e-01</leafValues></_>
        <_>
          <internalNodes>
            0 -1 76 -1137648139 -1519628 -16385 -135299 -1124073473
            -136314889 -1614807041 -1342218791</internalNodes>
          <leafValues>
            -3.4684014320373535e-01 5.6815880537033081e-01</leafValues></_>
        <_>
          <internalNodes>
            0 -1 93 710702965 -1437285294 -578422585 -19508877
            -1090782379 -1124869607 -70649035 -16974891</internalNodes>
          <leafValues>
            -7.0481514930725098e-01 2.8273257613182068e-01</leafValues></_>
        <_>
          <internalNodes>
            0 -1 17 -2097489 -257502974 -1877651316 -232598582
            -557594876 1191215627 -1245633774 -237512777</internalNodes>
          <leafValues>
            -4.9155700206756592e-01 3.7697899341583252e-01</leafValues></_>
        <_>
          <internalNodes>
            0 -1 50 -575414672 -642313819 -1726395105 -2120230497
            -473255424 -1741684464 -1970685640 -935339986</internalNodes>
          <leafValues>
            -4.5113715529441833e-01 4.3936949968338013e-01</leafValues></_>
        <_>
          <internalNodes>
            0 -1 40 -301218072 1416715280 -938359394 1347793871
            -368325714 -83721703 -259331382 -128910838</internalNodes>
          <leafValues>
            -5.2496951818466187e-01 3.6116275191307068e-01</leafValues></_>
        <_>
          <internalNodes>
            0 -1 92 -1433406191 -1866870715 -251023149 -1646308665
            -1945445650 -754532210 -1602959617 -1430539297</internalNodes>
          <leafValues>
            -5.0144678354263306e-01 3.9872810244560242e-01</leafValues></_>
        <_>
          <internalNodes>
            0 -1 73 -673185797 1604186883 -726150488 -1484597992
            -1033964637 134988169 -4459614 -1457391702</internalNodes>
          <leafValues>
            -5.2072435617446899e-01 4.1794025897979736e-01</leafValues></_></weakClassifiers></_>
    <!-- stage 9 -->
    <_>
      <maxWeakCount>13</maxWeakCount>
      <stageThreshold>-1.1493008136749268e+00</stageThreshold>
      <weakClassifiers>
        <_>
          <internalNodes>
            0 -1 27 -545259540 -20790 -275 -2232594 -33554433 -2081
            -134219828 -1054772</internalNodes>
          <leafValues>
            -3.5142856836318970e-01 6.7419636249542236e-01</leafValues></_>
        <_>
          <internalNodes>
            0 -1 52 139201061 -1566682661 -1743529337 -629194539 8997443
            -1509783542 -98046997 -134222085</internalNodes>
          <leafValues>
            -5.0906324386596680e-01 4.7169750928878784e-01</leafValues></_>
        <_>
          <internalNodes>
            0 -1 69 -538968112 -63910204 -32963 -716899468 -541143926
            -2013133056 -1078399265 -5505537</internalNodes>
          <leafValues>
            -4.6019124984741211e-01 4.7597622871398926e-01</leafValues></_>
        <_>
          <internalNodes>
            0 -1 8 -269092993 -362855521 -221887154 -1529951156
            1884772215 -963055170 -103419067 -671221897</internalNodes>
          <leafValues>
            -4.6221384406089783e-01 4.7210538387298584e-01</leafValues></_>
        <_>
          <internalNodes>
            0 -1 55 1124593615 890632579 -1878927143 -654289757
            1872890367 2139795688 2089003659 -91510645</internalNodes>
          <leafValues>
            -6.2707698345184326e-01 3.3884957432746887e-01</leafValues></_>
        <_>
          <internalNodes>
            0 -1 44 -103027552 -494255101 -1073475456 -141052848
            -1874083115 -528482166 -746459120 -544216379</internalNodes>
          <leafValues>
            -5.6080073118209839e-01 3.3348706364631653e-01</leafValues></_>
        <_>
          <internalNodes>
            0 -1 102 -344206471 -78647167 -2130620209 -7499619
            -1954156661 -1442282870 -1730732621 -222752</internalNodes>
          <leafValues>
            -5.0271046161651611e-01 4.3917307257652283e-01</leafValues></_>
        <_>
          <internalNodes>
            0 -1 24 -632228046 1370490432 594113 -146202493 -897515517
            -22179840 -2113421183 -3171865</internalNodes>
          <leafValues>
            -6.4413571357727051e-01 3.1771990656852722e-01</leafValues></_>
        <_>
          <internalNodes>
            0 -1 84 -43755428 -691518955 51401055 1532062101 -669273444
            -50101630 -1710703638 -1441750465</internalNodes>
          <leafValues>
            -5.5671644210815430e-01 3.5527691245079041e-01</leafValues></_>
        <_>
          <internalNodes>
            0 -1 90 1795156853 -221990384 -2079350727 1100537984
            -1563762539 -511602688 -1426078975 -88540880</internalNodes>
          <leafValues>
            -6.3754349946975708e-01 2.9913425445556641e-01</leafValues></_>
        <_>
          <internalNodes>
            0 -1 59 411575236 434132129 352406425 -1257663684 696782987
            -1614623575 -1367342853 264192415</internalNodes>
          <leafValues>
            -5.0033056735992432e-01 3.9427351951599121e-01</leafValues></_>
        <_>
          <internalNodes>
            0 -1 15 -1036004694 -1073741696 311298 -792657402 1396934707
            1610694657 1879812610 1363669499</internalNodes>
          <leafValues>
            -5.2063030004501343e-01 4.0484291315078735e-01</leafValues></_>
        <_>
          <internalNodes>
            0 -1 19 -246745297 -833129985 -1073426097 1717549853
            -518837754 159973442 1107479630 1081331326</internalNodes>
          <leafValues>
            -5.7154226303100586e-01 3.4337499737739563e-01</leafValues></_></weakClassifiers></_>
    <!-- stage 10 -->
    <_>
      <maxWeakCount>11</maxWeakCount>
      <stageThreshold>-1.2551887333393097e-01</stageThreshold>
      <weakClassifiers>
        <_>
          <internalNodes>
            0 -1 72 69732045 2145333247 402616311 -1 2146401725 -34817
            -1 -1</internalNodes>
          <leafValues>
            -2.2950819134712219e-01 8.2867288589477539e-01</leafValues></_>
        <_>
          <internalNodes>
            0 -1 98 1030618495 247070715 -16777218 -600637509 -131465
            2147483647 -1116086443 -51585419</internalNodes>
          <leafValues>
            -4.6669152379035950e-01 5.7235026359558105e-01</leafValues></_>
        <_>
          <internalNodes>
            0 -1 66 -726835991 -227048235 -1887494674 -1078387561
            -1631623185 -1124237836 264213563 245302523</internalNodes>
          <leafValues>
            -4.5382705330848694e-01 5.1782721281051636e-01</leafValues></_>
        <_>
          <internalNodes>
            0 -1 11 1360065753 -787445295 285270321 1884303049
            -805256827 402674101 -1877934853 -116781953</internalNodes>
          <leafValues>
            -4.9256682395935059e-01 4.8572814464569092e-01</leafValues></_>
        <_>
          <internalNodes>
            0 -1 23 1145238658 -795492347 -939518772 277037064
            1090584580 1509951528 1376307727 -586160213</internalNodes>
          <leafValues>
            -4.8091688752174377e-01 4.9555891752243042e-01</leafValues></_>
        <_>
          <internalNodes>
            0 -1 82 -137633835 -1023348405 3797087 -489025432
            -1412917200 -661618686 1762320212 -896618364</internalNodes>
          <leafValues>
            -5.8971023559570313e-01 3.9354300498962402e-01</leafValues></_>
        <_>
          <internalNodes>
            0 -1 102 -37748745 -272629767 -19 2130444284 -1073741849
            -536871105 1744303614 -822093835</internalNodes>
          <leafValues>
            -4.5447605848312378e-01 5.2443766593933105e-01</leafValues></_>
        <_>
          <internalNodes>
            0 -1 63 -1140857324 -1322762383 -1157648627 426195327
            -704805260 1418585444 -855923512 -1988105169</internalNodes>
          <leafValues>
            -4.3912065029144287e-01 5.3322088718414307e-01</leafValues></_>
        <_>
          <internalNodes>
            0 -1 14 -435298138 -994049918 1073774720 1413599618
            1518575744 1140883456 290097154 1359989450</internalNodes>
          <leafValues>
            -5.0014948844909668e-01 4.7443094849586487e-01</leafValues></_>
        <_>
          <internalNodes>
            0 -1 77 -1006337792 -41942890 1092619589 -1148370942
            -2113896054 -335011710 -938997073 453066255</internalNodes>
          <leafValues>
            -5.7960730791091919e-01 4.2659404873847961e-01</leafValues></_>
        <_>
          <internalNodes>
            0 -1 16 -33818405 2135799436 1679963457 1879535142
            1469299739 473038864 1147506362 -782238997</internalNodes>
          <leafValues>
            -3.1472960114479065e-01 7.7027612924575806e-01</leafValues></_></weakClassifiers></_></stages>
  <features>
    <_>
      <rect>
        0 6 10 10</rect></_>
    <_>
      <rect>
        0 8 9 4</rect></_>
    <_>
      <rect>
        1 9 11 3</rect></_>
    <_>
      <rect>
        3 20 6 5</rect></_>
    <_>
      <rect>
        4 0 7 4</rect></_>
    <_>
      <rect>
        4 8 9 6</rect></_>
    <_>
      <rect>
        4 14 6 6</rect></_>
    <_>
      <rect>
        4 18 6 6</rect></_>
    <_>
      <rect>
        5 0 7 9</rect></_>
    <_>
      <rect>
        5 6 9 4</rect></_>
    <_>
      <rect>
        5 9 6 7</rect></_>
    <_>
      <rect>
        6 0 8 6</rect></_>
    <_>
      <rect>
        6 2 8 6</rect></_>
    <_>
      <rect>
        7 2 8 6</rect></_>
    <_>
      <rect>
        7 11 1 2</rect></_>
    <_>
      <rect>
        7 14 1 2</rect></_>
    <_>
      <rect>
        7 22 1 2</rect></_>
    <_>
      <rect>
        8 21 1 1</rect></_>
    <_>
      <rect>
        9 3 8 6</rect></_>
    <_>
      <rect>
        10 18 4 6</rect></_>
    <_>
      <rect>
        11 1 5 5</rect></_>
    <_>
      <rect>
        11 3 3 5</rect></_>
    <_>
      <rect>
        11 10 3 2</rect></_>
    <_>
      <rect>
        11 27 2 2</rect></_>
    <_>
      <rect>
        12 4 2 9</rect></_>
    <_>
      <rect>
        12 15 3 2</rect></_>
    <_>
      <rect>
        12 24 7 4</rect></_>
    <_>
      <rect>
        13 1 4 4</rect></_>
    <_>
      <rect>
        13 3 2 3</rect></_>
    <_>
      <rect>
        13 4 4 3</rect></_>
    <_>
      <rect>
        13 11 7 2</rect></_>
    <_>
      <rect>
        13 12 2 1</rect></_>
    <_>
      <rect>
        14 1 4 8</rect></_>
    <_>
      <rect>
        14 3 2 3</rect></_>
    <_>
      <rect>
        14 8 2 9</rect></_>
    <_>
      <rect>
        14 12 2 2</rect></_>
    <_>
      <rect>
        14 13 2 2</rect></_>
    <_>
      <rect>
        14 23 5 4</rect></_>
    <_>
      <rect>
        15 4 1 3</rect></_>
    <_>
      <rect>
        15 5 1 2</rect></_>
    <_>
      <rect>
        15 8 1 1</rect></_>
    <_>
      <rect>
        15 18 6 2</rect></_>
    <_>
      <rect>
        16 3 1 3</rect></_>
    <_>
      <rect>
        16 11 1 1</rect></_>
    <_>
      <rect>
        16 13 1 1</rect></_>
    <_>
      <rect>
        17 1 5 8</rect></_>
    <_>
      <rect>
        17 9 5 3</rect></_>
    <_>
      <rect>
        17 10 1 1</rect></_>
    <_>
      <rect>
        17 11 1 1</rect></_>
    <_>
      <rect>
        17 15 4 3</rect></_>
    <_>
      <rect>
        17 19 3 1</rect></_>
    <_>
      <rect>
        17 19 3 2</rect></_>
    <_>
      <rect>
        17 33 1 1</rect></_>
    <_>
      <rect>
        18 1 2 4</rect></_>
    <_>
      <rect>
        18 7 5 9</rect></_>
    <_>
      <rect>
        18 10 6 3</rect></_>
    <_>
      <rect>
        18 11 2 4</rect></_>
    <_>
      <rect>
        18 11 4 2</rect></_>
    <_>
      <rect>
        18 14 3 4</rect></_>
    <_>
      <rect>
        18 21 2 2</rect></_>
    <_>
      <rect>
        18 26 1 1</rect></_>
    <_>
      <rect>
        18 27 2 1</rect></_>
    <_>
      <rect>
        19 0 2 5</rect></_>
    <_>
      <rect>
        19 20 2 1</rect></_>
    <_>
      <rect>
        19 21 2 3</rect></_>
    <_>
      <rect>
        19 23 2 4</rect></_>
    <_>
      <rect>
        19 24 3 3</rect></_>
    <_>
      <rect>
        19 27 1 1</rect></_>
    <_>
      <rect>
        20 8 5 8</rect></_>
    <_>
      <rect>
        20 20 3 3</rect></_>
    <_>
      <rect>
        21 4 2 1</rect></_>
    <_>
      <rect>
        21 5 1 1</rect></_>
    <_>
      <rect>
        21 10 3 3</rect></_>
    <_>
      <rect>
        21 21 5 5</rect></_>
    <_>
      <rect>
        21 28 1 1</rect></_>
    <_>
      <rect>
        24 4 1 1</rect></_>
    <_>
      <rect>
        24 5 1 1</rect></_>
    <_>
      <rect>
        24 7 2 2</rect></_>
    <_>
      <rect>
        24 18 1 1</rect></_>
    <_>
      <rect>
        24 33 4 1</rect></_>
    <_>
      <rect>
        25 2 3 2</rect></_>
    <_>
      <rect>
        25 6 2 1</rect></_>
    <_>
      <rect>
        27 20 3 2</rect></_>
    <_>
      <rect>
        27 33 3 1</rect></_>
    <_>
      <rect>
        28 4 2 2</rect></_>
    <_>
      <rect>
        28 21 1 1</rect></_>
    <_>
      <rect>
        29 5 1 1</rect></_>
    <_>
      <rect>
        29 5 1 2</rect></_>
    <_>
      <rect>
        30 2 2 6</rect></_>
    <_>
      <rect>
        30 5 2 5</rect></_>
    <_>
      <rect>
        30 11 2 8</rect></_>
    <_>
      <rect>
        30 33 2 1</rect></_>
    <_>
      <rect>
        32 9 1 2</rect></_>
    <_>
      <rect>
        32 17 1 1</rect></_>
    <_>
      <rect>
        32 20 1 1</rect></_>
    <_>
      <rect>
        32 21 1 1</rect></_>
    <_>
      <rect>
        32 33 1 1</rect></_>
    <_>
      <rect>
        33 15 1 7</rect></_>
    <_>
      <rect>
        33 18 1 1</rect></_>
    <_>
      <rect>
        33 19 1 1</rect></_>
    <_>
      <rect>
        33 27 1 3</rect></_>
    <_>
      <rect>
        33 29 1 2</rect></_>
    <_>
      <rect>
        33 33 1 1</rect></_></features></cascade>
</opencv_storage>
